<?xml version="1.0"?>
<opencv_storage>
<cascade>
  <stageType>BOOST</stageType>
  <featureType>HAAR</featureType>
  <height>24</height>
  <width>24</width>
  <stageParams>
    <boostType>GAB</boostType>
    <minHitRate>9.9500000476837158e-01</minHitRate>
    <maxFalseAlarm>5.0000000000000000e-01</maxFalseAlarm>
    <weightTrimRate>9.4999999999999996e-01</weightTrimRate>
    <maxDepth>1</maxDepth>
    <maxWeakCount>100</maxWeakCount></stageParams>
  <featureParams>
    <maxCatCount>0</maxCatCount>
    <featSize>1</featSize>
    <mode>BASIC</mode></featureParams>
  <stageNum>15</stageNum>
  <stages>
    <!-- stage 0 -->
    <_>
      <maxWeakCount>4</maxWeakCount>
      <stageThreshold>-3.4143764525651932e-02</stageThreshold>
      <weakClassifiers>
        <_>
          <internalNodes>
            0 -1 52 -5.7967513799667358e-02</internalNodes>
          <leafValues>
            9.3178296089172363e-01 -3.7032756209373474e-01</leafValues></_>
        <_>
          <internalNodes>
            0 -1 58 3.9599873125553131e-02</internalNodes>
          <leafValues>
            -4.4356629252433777e-01 9.1509115695953369e-01</leafValues></_>
        <_>
          <internalNodes>
            0 -1 63 1.3174960622563958e-04</internalNodes>
          <leafValues>
            3.7932702898979187e-01 -8.1116867065429688e-01</leafValues></_>
        <_>
          <internalNodes>
            0 -1 63 -1.5765278658363968e-04</internalNodes>
          <leafValues>
            -8.6861938238143921e-01 4.0042307972908020e-01</leafValues></_></weakClassifiers></_>
    <!-- stage 1 -->
    <_>
      <maxWeakCount>5</maxWeakCount>
      <stageThreshold>-6.9858956336975098e-01</stageThreshold>
      <weakClassifiers>
        <_>
          <internalNodes>
            0 -1 72 -1.0076075792312622e-01</internalNodes>
          <leafValues>
            7.5830012559890747e-01 -3.7434661388397217e-01</leafValues></_>
        <_>
          <internalNodes>
            0 -1 55 9.6007212996482849e-02</internalNodes>
          <leafValues>
            -4.6294799447059631e-01 8.1882369518280029e-01</leafValues></_>
        <_>
          <internalNodes>
            0 -1 55 -9.0375192463397980e-02</internalNodes>
          <leafValues>
            8.2963490486145020e-01 -2.7258780598640442e-01</leafValues></_>
        <_>
          <internalNodes>
            0 -1 8 3.2598432153463364e-02</internalNodes>
          <leafValues>
            -3.4758692979812622e-01 7.8841805458068848e-01</leafValues></_>
        <_>
          <internalNodes>
            0 -1 21 -4.3818444013595581e-02</internalNodes>
          <leafValues>
            7.5887978076934814e-01 -2.8097465634346008e-01</leafValues></_></weakClassifiers></_>
    <!-- stage 2 -->
    <_>
      <maxWeakCount>6</maxWeakCount>
      <stageThreshold>-7.1542894840240479e-01</stageThreshold>
      <weakClassifiers>
        <_>
          <internalNodes>
            0 -1 88 -2.6470467448234558e-02</internalNodes>
          <leafValues>
            7.6416540145874023e-01 -3.3204483985900879e-01</leafValues></_>
        <_>
          <internalNodes>
            0 -1 73 1.2342409789562225e-01</internalNodes>
          <leafValues>
            -3.7965729832649231e-01 7.3456239700317383e-01</leafValues></_>
        <_>
          <internalNodes>
            0 -1 0 -5.7406879961490631e-02</internalNodes>
          <leafValues>
            8.2139587402343750e-01 -2.6547896862030029e-01</leafValues></_>
        <_>
          <internalNodes>
            0 -1 51 3.9863813668489456e-02</internalNodes>
          <leafValues>
            -2.6679605245590210e-01 7.7647250890731812e-01</leafValues></_>
        <_>
          <internalNodes>
            0 -1 18 -9.6193558420054615e-05</internalNodes>
          <leafValues>
            -8.4682327508926392e-01 2.8778758645057678e-01</leafValues></_>
        <_>
          <internalNodes>
            0 -1 18 8.6938802269287407e-05</internalNodes>
          <leafValues>
            3.5146290063858032e-01 -8.5544961690902710e-01</leafValues></_></weakClassifiers></_>
    <!-- stage 3 -->
    <_>
      <maxWeakCount>6</maxWeakCount>
      <stageThreshold>-7.5530779361724854e-01</stageThreshold>
      <weakClassifiers>
        <_>
          <internalNodes>
            0 -1 37 -1.1253526806831360e-01</internalNodes>
          <leafValues>
            7.8181821107864380e-01 -3.1612902879714966e-01</leafValues></_>
        <_>
          <internalNodes>
            0 -1 59 4.1597109287977219e-02</internalNodes>
          <leafValues>
            -3.6545464396476746e-01 6.8147045373916626e-01</leafValues></_>
        <_>
          <internalNodes>
            0 -1 2 4.6445306390523911e-02</internalNodes>
          <leafValues>
            -2.4148455262184143e-01 7.5053513050079346e-01</leafValues></_>
        <_>
          <internalNodes>
            0 -1 67 1.4169385656714439e-02</internalNodes>
          <leafValues>
            -2.1673902869224548e-01 8.4302562475204468e-01</leafValues></_>
        <_>
          <internalNodes>
            0 -1 60 1.9489474594593048e-02</internalNodes>
          <leafValues>
            -2.2694495320320129e-01 7.4462872743606567e-01</leafValues></_>
        <_>
          <internalNodes>
            0 -1 44 6.5383046865463257e-02</internalNodes>
          <leafValues>
            -3.3214151859283447e-01 6.1144441366195679e-01</leafValues></_></weakClassifiers></_>
    <!-- stage 4 -->
    <_>
      <maxWeakCount>6</maxWeakCount>
      <stageThreshold>-8.3022326231002808e-01</stageThreshold>
      <weakClassifiers>
        <_>
          <internalNodes>
            0 -1 77 4.9297153949737549e-02</internalNodes>
          <leafValues>
            -3.8172501325607300e-01 5.9465479850769043e-01</leafValues></_>
        <_>
          <internalNodes>
            0 -1 41 -2.7306728065013885e-02</internalNodes>
          <leafValues>
            6.6463077068328857e-01 -3.6631456017494202e-01</leafValues></_>
        <_>
          <internalNodes>
            0 -1 15 -1.7427161219529808e-04</internalNodes>
          <leafValues>
            -7.7182072401046753e-01 2.7323207259178162e-01</leafValues></_>
        <_>
          <internalNodes>
            0 -1 15 9.4679955509491265e-05</internalNodes>
          <leafValues>
            2.4395883083343506e-01 -6.8702334165573120e-01</leafValues></_>
        <_>
          <internalNodes>
            0 -1 46 2.2177260369062424e-02</internalNodes>
          <leafValues>
            -2.5143697857856750e-01 6.8090510368347168e-01</leafValues></_>
        <_>
          <internalNodes>
            0 -1 65 -1.3321312144398689e-02</internalNodes>
          <leafValues>
            7.9348927736282349e-01 -2.7926459908485413e-01</leafValues></_></weakClassifiers></_>
    <!-- stage 5 -->
    <_>
      <maxWeakCount>9</maxWeakCount>
      <stageThreshold>-9.6003037691116333e-01</stageThreshold>
      <weakClassifiers>
        <_>
          <internalNodes>
            0 -1 51 -4.6506080776453018e-02</internalNodes>
          <leafValues>
            6.8996959924697876e-01 -3.1525948643684387e-01</leafValues></_>
        <_>
          <internalNodes>
            0 -1 78 -8.7649628520011902e-02</internalNodes>
          <leafValues>
            6.1750513315200806e-01 -3.3802625536918640e-01</leafValues></_>
        <_>
          <internalNodes>
            0 -1 91 3.6162532866001129e-02</internalNodes>
          <leafValues>
            -2.2222332656383514e-01 7.5116926431655884e-01</leafValues></_>
        <_>
          <internalNodes>
            0 -1 50 3.1623102724552155e-02</internalNodes>
          <leafValues>
            -2.7729663252830505e-01 7.4615192413330078e-01</leafValues></_>
        <_>
          <internalNodes>
            0 -1 74 -5.4658018052577972e-02</internalNodes>
          <leafValues>
            7.0030450820922852e-01 -1.9756256043910980e-01</leafValues></_>
        <_>
          <internalNodes>
            0 -1 90 -3.1531572341918945e-02</internalNodes>
          <leafValues>
            6.4775991439819336e-01 -2.9105079174041748e-01</leafValues></_>
        <_>
          <internalNodes>
            0 -1 18 -9.0833898866549134e-05</internalNodes>
          <leafValues>
            -8.4623813629150391e-01 2.6664361357688904e-01</leafValues></_>
        <_>
          <internalNodes>
            0 -1 87 2.7900449931621552e-02</internalNodes>
          <leafValues>
            -2.5772884488105774e-01 6.8267065286636353e-01</leafValues></_>
        <_>
          <internalNodes>
            0 -1 68 -1.1811900883913040e-02</internalNodes>
          <leafValues>
            6.7247390747070313e-01 -2.5536170601844788e-01</leafValues></_></weakClassifiers></_>
    <!-- stage 6 -->
    <_>
      <maxWeakCount>7</maxWeakCount>
      <stageThreshold>-6.2200140953063965e-01</stageThreshold>
      <weakClassifiers>
        <_>
          <internalNodes>
            0 -1 71 -4.1723906993865967e-02</internalNodes>
          <leafValues>
            6.9190603494644165e-01 -3.5974130034446716e-01</leafValues></_>
        <_>
          <internalNodes>
            0 -1 42 2.2495944052934647e-02</internalNodes>
          <leafValues>
            -3.4377023577690125e-01 6.9894677400588989e-01</leafValues></_>
        <_>
          <internalNodes>
            0 -1 70 9.0269371867179871e-05</internalNodes>
          <leafValues>
            2.8022569417953491e-01 -7.0323079824447632e-01</leafValues></_>
        <_>
          <internalNodes>
            0 -1 70 -9.1898444225080311e-05</internalNodes>
          <leafValues>
            -7.0184564590454102e-01 2.6027911901473999e-01</leafValues></_>
        <_>
          <internalNodes>
            0 -1 64 -1.4979924890212715e-04</internalNodes>
          <leafValues>
            -8.1490272283554077e-01 1.7923060059547424e-01</leafValues></_>
        <_>
          <internalNodes>
            0 -1 64 1.3331187074072659e-04</internalNodes>
          <leafValues>
            2.5724366307258606e-01 -7.6243293285369873e-01</leafValues></_>
        <_>
          <internalNodes>
            0 -1 40 3.8330107927322388e-02</internalNodes>
          <leafValues>
            1.5639503300189972e-01 -8.9546900987625122e-01</leafValues></_></weakClassifiers></_>
    <!-- stage 7 -->
    <_>
      <maxWeakCount>7</maxWeakCount>
      <stageThreshold>-6.9910413026809692e-01</stageThreshold>
      <weakClassifiers>
        <_>
          <internalNodes>
            0 -1 5 5.5350273847579956e-02</internalNodes>
          <leafValues>
            8.7652437388896942e-02 -9.5779222249984741e-01</leafValues></_>
        <_>
          <internalNodes>
            0 -1 43 -3.1294640153646469e-02</internalNodes>
          <leafValues>
            6.4437806606292725e-01 -3.0405500531196594e-01</leafValues></_>
        <_>
          <internalNodes>
            0 -1 82 -2.1802384406328201e-02</internalNodes>
          <leafValues>
            6.3958346843719482e-01 -3.1130373477935791e-01</leafValues></_>
        <_>
          <internalNodes>
            0 -1 62 1.3207425363361835e-02</internalNodes>
          <leafValues>
            -1.6724459826946259e-01 7.5684618949890137e-01</leafValues></_>
        <_>
          <internalNodes>
            0 -1 34 7.4574291706085205e-02</internalNodes>
          <leafValues>
            -2.7454212307929993e-01 6.3557136058807373e-01</leafValues></_>
        <_>
          <internalNodes>
            0 -1 56 -1.9200321286916733e-02</internalNodes>
          <leafValues>
            -9.6249788999557495e-01 2.0965975522994995e-01</leafValues></_>
        <_>
          <internalNodes>
            0 -1 38 1.3984783552587032e-02</internalNodes>
          <leafValues>
            1.5877735614776611e-01 -8.6336165666580200e-01</leafValues></_></weakClassifiers></_>
    <!-- stage 8 -->
    <_>
      <maxWeakCount>7</maxWeakCount>
      <stageThreshold>-8.0533415079116821e-01</stageThreshold>
      <weakClassifiers>
        <_>
          <internalNodes>
            0 -1 66 1.9588079303503036e-02</internalNodes>
          <leafValues>
            -3.0128690600395203e-01 7.2909700870513916e-01</leafValues></_>
        <_>
          <internalNodes>
            0 -1 7 1.5513825416564941e-01</internalNodes>
          <leafValues>
            -3.1053060293197632e-01 6.0630959272384644e-01</leafValues></_>
        <_>
          <internalNodes>
            0 -1 26 -3.2469045370817184e-02</internalNodes>
          <leafValues>
            7.0856803655624390e-01 -2.4660047888755798e-01</leafValues></_>
        <_>
          <internalNodes>
            0 -1 45 -5.3960338234901428e-02</internalNodes>
          <leafValues>
            -9.2532324790954590e-01 2.0268352329730988e-01</leafValues></_>
        <_>
          <internalNodes>
            0 -1 80 -9.1821737587451935e-03</internalNodes>
          <leafValues>
            7.1630918979644775e-01 -2.6906388998031616e-01</leafValues></_>
        <_>
          <internalNodes>
            0 -1 47 1.2028798460960388e-02</internalNodes>
          <leafValues>
            -2.1426388621330261e-01 6.5147519111633301e-01</leafValues></_>
        <_>
          <internalNodes>
            0 -1 74 5.5573176592588425e-02</internalNodes>
          <leafValues>
            -4.3438813090324402e-01 4.7940850257873535e-01</leafValues></_></weakClassifiers></_>
    <!-- stage 9 -->
    <_>
      <maxWeakCount>9</maxWeakCount>
      <stageThreshold>-1.0361437797546387e+00</stageThreshold>
      <weakClassifiers>
        <_>
          <internalNodes>
            0 -1 57 9.2455557023640722e-05</internalNodes>
          <leafValues>
            1.0945273935794830e-01 -7.5362318754196167e-01</leafValues></_>
        <_>
          <internalNodes>
            0 -1 57 -8.9288034359924495e-05</internalNodes>
          <leafValues>
            -7.6283800601959229e-01 2.2614897787570953e-01</leafValues></_>
        <_>
          <internalNodes>
            0 -1 49 -7.5376316905021667e-02</internalNodes>
          <leafValues>
            -9.1150879859924316e-01 1.4124150574207306e-01</leafValues></_>
        <_>
          <internalNodes>
            0 -1 3 3.8930124137550592e-03</internalNodes>
          <leafValues>
            -2.8883978724479675e-01 5.2665549516677856e-01</leafValues></_>
        <_>
          <internalNodes>
            0 -1 4 -3.4301027655601501e-02</internalNodes>
          <leafValues>
            6.8883699178695679e-01 -2.3708336055278778e-01</leafValues></_>
        <_>
          <internalNodes>
            0 -1 13 -7.2791159152984619e-02</internalNodes>
          <leafValues>
            5.9034758806228638e-01 -2.3644244670867920e-01</leafValues></_>
        <_>
          <internalNodes>
            0 -1 35 1.8114371597766876e-01</internalNodes>
          <leafValues>
            -2.2710759937763214e-01 6.3547801971435547e-01</leafValues></_>
        <_>
          <internalNodes>
            0 -1 75 8.9661472884472460e-05</internalNodes>
          <leafValues>
            2.6535359025001526e-01 -6.0965907573699951e-01</leafValues></_>
        <_>
          <internalNodes>
            0 -1 75 -8.7031890871003270e-05</internalNodes>
          <leafValues>
            -7.4797141551971436e-01 2.4834227561950684e-01</leafValues></_></weakClassifiers></_>
    <!-- stage 10 -->
    <_>
      <maxWeakCount>8</maxWeakCount>
      <stageThreshold>-9.0720373392105103e-01</stageThreshold>
      <weakClassifiers>
        <_>
          <internalNodes>
            0 -1 22 -1.0258298425469548e-04</internalNodes>
          <leafValues>
            -7.8579235076904297e-01 1.5440860390663147e-01</leafValues></_>
        <_>
          <internalNodes>
            0 -1 22 1.1628762877080590e-04</internalNodes>
          <leafValues>
            2.5385650992393494e-01 -7.4053579568862915e-01</leafValues></_>
        <_>
          <internalNodes>
            0 -1 79 3.7993572652339935e-02</internalNodes>
          <leafValues>
            1.3762642443180084e-01 -8.0091798305511475e-01</leafValues></_>
        <_>
          <internalNodes>
            0 -1 86 1.0083235974889249e-04</internalNodes>
          <leafValues>
            1.9693917036056519e-01 -6.6567945480346680e-01</leafValues></_>
        <_>
          <internalNodes>
            0 -1 86 -4.9137903260998428e-05</internalNodes>
          <leafValues>
            -5.7911598682403564e-01 2.1946655213832855e-01</leafValues></_>
        <_>
          <internalNodes>
            0 -1 30 3.1565312296152115e-02</internalNodes>
          <leafValues>
            1.3418391346931458e-01 -9.5026379823684692e-01</leafValues></_>
        <_>
          <internalNodes>
            0 -1 16 2.8515914455056190e-03</internalNodes>
          <leafValues>
            -2.2296626865863800e-01 6.4859902858734131e-01</leafValues></_>
        <_>
          <internalNodes>
            0 -1 11 4.0637440979480743e-02</internalNodes>
          <leafValues>
            1.5636050701141357e-01 -9.1809999942779541e-01</leafValues></_></weakClassifiers></_>
    <!-- stage 11 -->
    <_>
      <maxWeakCount>10</maxWeakCount>
      <stageThreshold>-1.0684095621109009e+00</stageThreshold>
      <weakClassifiers>
        <_>
          <internalNodes>
            0 -1 76 1.2687486014328897e-04</internalNodes>
          <leafValues>
            1.4072120189666748e-01 -7.0393377542495728e-01</leafValues></_>
        <_>
          <internalNodes>
            0 -1 61 -8.7893567979335785e-03</internalNodes>
          <leafValues>
            5.9459626674652100e-01 -2.6846429705619812e-01</leafValues></_>
        <_>
          <internalNodes>
            0 -1 6 1.1815964244306087e-02</internalNodes>
          <leafValues>
            -2.7155724167823792e-01 6.2657845020294189e-01</leafValues></_>
        <_>
          <internalNodes>
            0 -1 19 3.8862209767103195e-02</internalNodes>
          <leafValues>
            1.6752578318119049e-01 -9.0693336725234985e-01</leafValues></_>
        <_>
          <internalNodes>
            0 -1 84 -1.1224647983908653e-02</internalNodes>
          <leafValues>
            -7.2723209857940674e-01 2.0565979182720184e-01</leafValues></_>
        <_>
          <internalNodes>
            0 -1 29 2.2219787351787090e-03</internalNodes>
          <leafValues>
            -2.6934421062469482e-01 6.1887407302856445e-01</leafValues></_>
        <_>
          <internalNodes>
            0 -1 27 1.0460847616195679e-01</internalNodes>
          <leafValues>
            -3.1385949254035950e-01 5.7541173696517944e-01</leafValues></_>
        <_>
          <internalNodes>
            0 -1 20 -2.4023795500397682e-02</internalNodes>
          <leafValues>
            6.0712605714797974e-01 -2.7789059281349182e-01</leafValues></_>
        <_>
          <internalNodes>
            0 -1 25 -4.3000560253858566e-03</internalNodes>
          <leafValues>
            5.2670621871948242e-01 -2.6574495434761047e-01</leafValues></_>
        <_>
          <internalNodes>
            0 -1 24 9.2061789473518729e-05</internalNodes>
          <leafValues>
            1.8943057954311371e-01 -7.5252300500869751e-01</leafValues></_></weakClassifiers></_>
    <!-- stage 12 -->
    <_>
      <maxWeakCount>10</maxWeakCount>
      <stageThreshold>-6.9769477844238281e-01</stageThreshold>
      <weakClassifiers>
        <_>
          <internalNodes>
            0 -1 24 -4.9016241973731667e-05</internalNodes>
          <leafValues>
            -7.8660613298416138e-01 1.4116151630878448e-01</leafValues></_>
        <_>
          <internalNodes>
            0 -1 10 8.4589254111051559e-03</internalNodes>
          <leafValues>
            -2.4732711911201477e-01 7.2618156671524048e-01</leafValues></_>
        <_>
          <internalNodes>
            0 -1 23 -2.0128028467297554e-02</internalNodes>
          <leafValues>
            7.3393315076828003e-01 -2.1349826455116272e-01</leafValues></_>
        <_>
          <internalNodes>
            0 -1 85 1.2536333815660328e-04</internalNodes>
          <leafValues>
            2.4426241219043732e-01 -6.5387886762619019e-01</leafValues></_>
        <_>
          <internalNodes>
            0 -1 31 3.9929458871483803e-03</internalNodes>
          <leafValues>
            -2.3897774517536163e-01 6.1147546768188477e-01</leafValues></_>
        <_>
          <internalNodes>
            0 -1 28 -1.9292758777737617e-02</internalNodes>
          <leafValues>
            7.9817736148834229e-01 -2.7611306309700012e-01</leafValues></_>
        <_>
          <internalNodes>
            0 -1 81 1.3279661536216736e-02</internalNodes>
          <leafValues>
            -1.4017683267593384e-01 7.9967951774597168e-01</leafValues></_>
        <_>
          <internalNodes>
            0 -1 69 2.5028962641954422e-02</internalNodes>
          <leafValues>
            -1.8701301515102386e-01 6.6037696599960327e-01</leafValues></_>
        <_>
          <internalNodes>
            0 -1 9 -1.6816649585962296e-02</internalNodes>
          <leafValues>
            5.7612919807434082e-01 -2.8173232078552246e-01</leafValues></_>
        <_>
          <internalNodes>
            0 -1 54 3.6877285689115524e-02</internalNodes>
          <leafValues>
            -3.0701443552970886e-01 5.5247098207473755e-01</leafValues></_></weakClassifiers></_>
    <!-- stage 13 -->
    <_>
      <maxWeakCount>9</maxWeakCount>
      <stageThreshold>-1.0991799831390381e+00</stageThreshold>
      <weakClassifiers>
        <_>
          <internalNodes>
            0 -1 33 1.8890790641307831e-02</internalNodes>
          <leafValues>
            1.1987128108739853e-01 -8.7267905473709106e-01</leafValues></_>
        <_>
          <internalNodes>
            0 -1 32 -1.5733389183878899e-02</internalNodes>
          <leafValues>
            -9.7427374124526978e-01 1.2174965441226959e-01</leafValues></_>
        <_>
          <internalNodes>
            0 -1 57 4.6460023440886289e-05</internalNodes>
          <leafValues>
            2.1576653420925140e-01 -6.1678606271743774e-01</leafValues></_>
        <_>
          <internalNodes>
            0 -1 48 -1.9048055401071906e-04</internalNodes>
          <leafValues>
            -7.1125870943069458e-01 2.5267481803894043e-01</leafValues></_>
        <_>
          <internalNodes>
            0 -1 93 -6.0156839899718761e-03</internalNodes>
          <leafValues>
            6.7328655719757080e-01 -2.7547466754913330e-01</leafValues></_>
        <_>
          <internalNodes>
            0 -1 92 -1.8027856945991516e-02</internalNodes>
          <leafValues>
            8.1464791297912598e-01 -1.8953646719455719e-01</leafValues></_>
        <_>
          <internalNodes>
            0 -1 36 -4.2216423898935318e-03</internalNodes>
          <leafValues>
            7.0026785135269165e-01 -2.5972551107406616e-01</leafValues></_>
        <_>
          <internalNodes>
            0 -1 14 8.4954798221588135e-03</internalNodes>
          <leafValues>
            -3.6570227146148682e-01 6.6854554414749146e-01</leafValues></_>
        <_>
          <internalNodes>
            0 -1 17 -2.1072452887892723e-02</internalNodes>
          <leafValues>
            -6.5626555681228638e-01 2.6101145148277283e-01</leafValues></_></weakClassifiers></_>
    <!-- stage 14 -->
    <_>
      <maxWeakCount>7</maxWeakCount>
      <stageThreshold>-8.5788547992706299e-01</stageThreshold>
      <weakClassifiers>
        <_>
          <internalNodes>
            0 -1 94 1.5367160085588694e-04</internalNodes>
          <leafValues>
            2.0075578987598419e-01 -6.9902050495147705e-01</leafValues></_>
        <_>
          <internalNodes>
            0 -1 89 -8.5741412476636469e-05</internalNodes>
          <leafValues>
            -4.9773889780044556e-01 3.8115206360816956e-01</leafValues></_>
        <_>
          <internalNodes>
            0 -1 39 1.5543321147561073e-02</internalNodes>
          <leafValues>
            2.3511038720607758e-01 -7.8667390346527100e-01</leafValues></_>
        <_>
          <internalNodes>
            0 -1 1 1.2492082081735134e-02</internalNodes>
          <leafValues>
            -2.6910358667373657e-01 7.5688630342483521e-01</leafValues></_>
        <_>
          <internalNodes>
            0 -1 12 1.3431426882743835e-01</internalNodes>
          <leafValues>
            -4.6433830261230469e-01 5.8984482288360596e-01</leafValues></_>
        <_>
          <internalNodes>
            0 -1 53 1.3507844414561987e-04</internalNodes>
          <leafValues>
            5.0025880336761475e-01 -5.3402489423751831e-01</leafValues></_>
        <_>
          <internalNodes>
            0 -1 83 1.7662737518548965e-03</internalNodes>
          <leafValues>
            -4.1993635892868042e-01 5.7438117265701294e-01</leafValues></_></weakClassifiers></_></stages>
  <features>
    <_>
      <rects>
        <_>
          0 2 16 6 -1.</_>
        <_>
          0 2 8 3 2.</_>
        <_>
          8 5 8 3 2.</_></rects>
      <tilted>0</tilted></_>
    <_>
      <rects>
        <_>
          0 6 4 10 -1.</_>
        <_>
          2 6 2 10 2.</_></rects>
      <tilted>0</tilted></_>
    <_>
      <rects>
        <_>
          0 6 9 8 -1.</_>
        <_>
          3 6 3 8 3.</_></rects>
      <tilted>0</tilted></_>
    <_>
      <rects>
        <_>
          0 11 4 3 -1.</_>
        <_>
          2 11 2 3 2.</_></rects>
      <tilted>0</tilted></_>
    <_>
      <rects>
        <_>
          1 5 9 6 -1.</_>
        <_>
          4 5 3 6 3.</_></rects>
      <tilted>0</tilted></_>
    <_>
      <rects>
        <_>
          1 12 21 4 -1.</_>
        <_>
          8 12 7 4 3.</_></rects>
      <tilted>0</tilted></_>
    <_>
      <rects>
        <_>
          2 11 6 7 -1.</_>
        <_>
          5 11 3 7 2.</_></rects>
      <tilted>0</tilted></_>
    <_>
      <rects>
        <_>
          3 5 14 13 -1.</_>
        <_>
          10 5 7 13 2.</_></rects>
      <tilted>0</tilted></_>
    <_>
      <rects>
        <_>
          3 6 12 2 -1.</_>
        <_>
          9 6 6 2 2.</_></rects>
      <tilted>0</tilted></_>
    <_>
      <rects>
        <_>
          3 10 16 1 -1.</_>
        <_>
          11 10 8 1 2.</_></rects>
      <tilted>0</tilted></_>
    <_>
      <rects>
        <_>
          4 0 15 2 -1.</_>
        <_>
          4 1 15 1 2.</_></rects>
      <tilted>0</tilted></_>
    <_>
      <rects>
        <_>
          4 4 6 16 -1.</_>
        <_>
          4 12 6 8 2.</_></rects>
      <tilted>0</tilted></_>
    <_>
      <rects>
        <_>
          4 4 14 11 -1.</_>
        <_>
          11 4 7 11 2.</_></rects>
      <tilted>0</tilted></_>
    <_>
      <rects>
        <_>
          4 5 12 5 -1.</_>
        <_>
          10 5 6 5 2.</_></rects>
      <tilted>0</tilted></_>
    <_>
      <rects>
        <_>
          4 7 6 4 -1.</_>
        <_>
          7 7 3 4 2.</_></rects>
      <tilted>0</tilted></_>
    <_>
      <rects>
        <_>
          4 8 1 4 -1.</_>
        <_>
          4 10 1 2 2.</_></rects>
      <tilted>0</tilted></_>
    <_>
      <rects>
        <_>
          4 9 4 4 -1.</_>
        <_>
          4 9 2 2 2.</_>
        <_>
          6 11 2 2 2.</_></rects>
      <tilted>0</tilted></_>
    <_>
      <rects>
        <_>
          4 9 10 10 -1.</_>
        <_>
          4 14 10 5 2.</_></rects>
      <tilted>0</tilted></_>
    <_>
      <rects>
        <_>
          4 10 1 2 -1.</_>
        <_>
          4 11 1 1 2.</_></rects>
      <tilted>0</tilted></_>
    <_>
      <rects>
        <_>
          5 4 9 9 -1.</_>
        <_>
          8 4 3 9 3.</_></rects>
      <tilted>0</tilted></_>
    <_>
      <rects>
        <_>
          5 5 8 8 -1.</_>
        <_>
          5 5 4 4 2.</_>
        <_>
          9 9 4 4 2.</_></rects>
      <tilted>0</tilted></_>
    <_>
      <rects>
        <_>
          5 5 10 5 -1.</_>
        <_>
          10 5 5 5 2.</_></rects>
      <tilted>0</tilted></_>
    <_>
      <rects>
        <_>
          5 6 1 4 -1.</_>
        <_>
          5 8 1 2 2.</_></rects>
      <tilted>0</tilted></_>
    <_>
      <rects>
        <_>
          5 7 7 6 -1.</_>
        <_>
          5 9 7 2 3.</_></rects>
      <tilted>0</tilted></_>
    <_>
      <rects>
        <_>
          5 8 1 2 -1.</_>
        <_>
          5 9 1 1 2.</_></rects>
      <tilted>0</tilted></_>
    <_>
      <rects>
        <_>
          5 10 6 4 -1.</_>
        <_>
          7 10 2 4 3.</_></rects>
      <tilted>0</tilted></_>
    <_>
      <rects>
        <_>
          6 4 13 4 -1.</_>
        <_>
          6 6 13 2 2.</_></rects>
      <tilted>0</tilted></_>
    <_>
      <rects>
        <_>
          6 7 13 14 -1.</_>
        <_>
          6 14 13 7 2.</_></rects>
      <tilted>0</tilted></_>
    <_>
      <rects>
        <_>
          6 8 7 6 -1.</_>
        <_>
          6 10 7 2 3.</_></rects>
      <tilted>0</tilted></_>
    <_>
      <rects>
        <_>
          6 10 2 5 -1.</_>
        <_>
          7 10 1 5 2.</_></rects>
      <tilted>0</tilted></_>
    <_>
      <rects>
        <_>
          6 16 14 5 -1.</_>
        <_>
          13 16 7 5 2.</_></rects>
      <tilted>0</tilted></_>
    <_>
      <rects>
        <_>
          7 8 2 6 -1.</_>
        <_>
          7 10 2 2 3.</_></rects>
      <tilted>0</tilted></_>
    <_>
      <rects>
        <_>
          8 2 6 7 -1.</_>
        <_>
          10 2 2 7 3.</_></rects>
      <tilted>0</tilted></_>
    <_>
      <rects>
        <_>
          8 2 4 17 -1.</_>
        <_>
          10 2 2 17 2.</_></rects>
      <tilted>0</tilted></_>
    <_>
      <rects>
        <_>
          8 2 9 6 -1.</_>
        <_>
          8 5 9 3 2.</_></rects>
      <tilted>0</tilted></_>
    <_>
      <rects>
        <_>
          8 5 15 8 -1.</_>
        <_>
          13 5 5 8 3.</_></rects>
      <tilted>0</tilted></_>
    <_>
      <rects>
        <_>
          8 5 11 3 -1.</_>
        <_>
          8 6 11 1 3.</_></rects>
      <tilted>0</tilted></_>
    <_>
      <rects>
        <_>
          8 7 15 5 -1.</_>
        <_>
          13 7 5 5 3.</_></rects>
      <tilted>0</tilted></_>
    <_>
      <rects>
        <_>
          8 10 5 10 -1.</_>
        <_>
          8 15 5 5 2.</_></rects>
      <tilted>0</tilted></_>
    <_>
      <rects>
        <_>
          8 10 6 8 -1.</_>
        <_>
          8 14 6 4 2.</_></rects>
      <tilted>0</tilted></_>
    <_>
      <rects>
        <_>
          8 13 14 7 -1.</_>
        <_>
          15 13 7 7 2.</_></rects>
      <tilted>0</tilted></_>
    <_>
      <rects>
        <_>
          8 16 9 6 -1.</_>
        <_>
          8 19 9 3 2.</_></rects>
      <tilted>0</tilted></_>
    <_>
      <rects>
        <_>
          9 4 4 6 -1.</_>
        <_>
          9 6 4 2 3.</_></rects>
      <tilted>0</tilted></_>
    <_>
      <rects>
        <_>
          9 5 10 6 -1.</_>
        <_>
          9 5 5 3 2.</_>
        <_>
          14 8 5 3 2.</_></rects>
      <tilted>0</tilted></_>
    <_>
      <rects>
        <_>
          9 7 12 5 -1.</_>
        <_>
          13 7 4 5 3.</_></rects>
      <tilted>0</tilted></_>
    <_>
      <rects>
        <_>
          9 9 12 12 -1.</_>
        <_>
          9 13 12 4 3.</_></rects>
      <tilted>0</tilted></_>
    <_>
      <rects>
        <_>
          9 17 8 6 -1.</_>
        <_>
          9 19 8 2 3.</_></rects>
      <tilted>0</tilted></_>
    <_>
      <rects>
        <_>
          9 18 7 6 -1.</_>
        <_>
          9 20 7 2 3.</_></rects>
      <tilted>0</tilted></_>
    <_>
      <rects>
        <_>
          9 20 6 1 -1.</_>
        <_>
          12 20 3 1 2.</_></rects>
      <tilted>0</tilted></_>
    <_>
      <rects>
        <_>
          10 1 7 16 -1.</_>
        <_>
          10 9 7 8 2.</_></rects>
      <tilted>0</tilted></_>
    <_>
      <rects>
        <_>
          10 2 2 9 -1.</_>
        <_>
          10 5 2 3 3.</_></rects>
      <tilted>0</tilted></_>
    <_>
      <rects>
        <_>
          10 2 3 9 -1.</_>
        <_>
          10 5 3 3 3.</_></rects>
      <tilted>0</tilted></_>
    <_>
      <rects>
        <_>
          10 2 5 9 -1.</_>
        <_>
          10 5 5 3 3.</_></rects>
      <tilted>0</tilted></_>
    <_>
      <rects>
        <_>
          10 3 4 1 -1.</_>
        <_>
          12 3 2 1 2.</_></rects>
      <tilted>0</tilted></_>
    <_>
      <rects>
        <_>
          10 4 9 8 -1.</_>
        <_>
          13 4 3 8 3.</_></rects>
      <tilted>0</tilted></_>
    <_>
      <rects>
        <_>
          10 8 12 8 -1.</_>
        <_>
          14 8 4 8 3.</_></rects>
      <tilted>0</tilted></_>
    <_>
      <rects>
        <_>
          10 11 4 10 -1.</_>
        <_>
          10 16 4 5 2.</_></rects>
      <tilted>0</tilted></_>
    <_>
      <rects>
        <_>
          10 20 4 1 -1.</_>
        <_>
          12 20 2 1 2.</_></rects>
      <tilted>0</tilted></_>
    <_>
      <rects>
        <_>
          11 2 6 6 -1.</_>
        <_>
          11 5 6 3 2.</_></rects>
      <tilted>0</tilted></_>
    <_>
      <rects>
        <_>
          11 3 8 12 -1.</_>
        <_>
          11 3 4 6 2.</_>
        <_>
          15 9 4 6 2.</_></rects>
      <tilted>0</tilted></_>
    <_>
      <rects>
        <_>
          11 13 8 6 -1.</_>
        <_>
          11 13 4 3 2.</_>
        <_>
          15 16 4 3 2.</_></rects>
      <tilted>0</tilted></_>
    <_>
      <rects>
        <_>
          11 14 4 6 -1.</_>
        <_>
          11 16 4 2 3.</_></rects>
      <tilted>0</tilted></_>
    <_>
      <rects>
        <_>
          11 14 8 4 -1.</_>
        <_>
          11 14 4 2 2.</_>
        <_>
          15 16 4 2 2.</_></rects>
      <tilted>0</tilted></_>
    <_>
      <rects>
        <_>
          11 20 4 1 -1.</_>
        <_>
          13 20 2 1 2.</_></rects>
      <tilted>0</tilted></_>
    <_>
      <rects>
        <_>
          12 6 2 1 -1.</_>
        <_>
          13 6 1 1 2.</_></rects>
      <tilted>0</tilted></_>
    <_>
      <rects>
        <_>
          12 14 6 4 -1.</_>
        <_>
          12 14 3 2 2.</_>
        <_>
          15 16 3 2 2.</_></rects>
      <tilted>0</tilted></_>
    <_>
      <rects>
        <_>
          12 14 6 6 -1.</_>
        <_>
          12 14 3 3 2.</_>
        <_>
          15 17 3 3 2.</_></rects>
      <tilted>0</tilted></_>
    <_>
      <rects>
        <_>
          12 15 9 1 -1.</_>
        <_>
          15 15 3 1 3.</_></rects>
      <tilted>0</tilted></_>
    <_>
      <rects>
        <_>
          12 15 6 4 -1.</_>
        <_>
          12 15 3 2 2.</_>
        <_>
          15 17 3 2 2.</_></rects>
      <tilted>0</tilted></_>
    <_>
      <rects>
        <_>
          12 16 10 6 -1.</_>
        <_>
          12 16 5 3 2.</_>
        <_>
          17 19 5 3 2.</_></rects>
      <tilted>0</tilted></_>
    <_>
      <rects>
        <_>
          12 20 4 1 -1.</_>
        <_>
          14 20 2 1 2.</_></rects>
      <tilted>0</tilted></_>
    <_>
      <rects>
        <_>
          13 1 2 15 -1.</_>
        <_>
          13 6 2 5 3.</_></rects>
      <tilted>0</tilted></_>
    <_>
      <rects>
        <_>
          13 1 5 18 -1.</_>
        <_>
          13 7 5 6 3.</_></rects>
      <tilted>0</tilted></_>
    <_>
      <rects>
        <_>
          13 1 6 18 -1.</_>
        <_>
          13 7 6 6 3.</_></rects>
      <tilted>0</tilted></_>
    <_>
      <rects>
        <_>
          13 2 4 12 -1.</_>
        <_>
          13 6 4 4 3.</_></rects>
      <tilted>0</tilted></_>
    <_>
      <rects>
        <_>
          13 6 2 1 -1.</_>
        <_>
          14 6 1 1 2.</_></rects>
      <tilted>0</tilted></_>
    <_>
      <rects>
        <_>
          13 6 2 2 -1.</_>
        <_>
          14 6 1 2 2.</_></rects>
      <tilted>0</tilted></_>
    <_>
      <rects>
        <_>
          13 7 4 14 -1.</_>
        <_>
          13 14 4 7 2.</_></rects>
      <tilted>0</tilted></_>
    <_>
      <rects>
        <_>
          13 7 6 14 -1.</_>
        <_>
          13 14 6 7 2.</_></rects>
      <tilted>0</tilted></_>
    <_>
      <rects>
        <_>
          13 8 7 12 -1.</_>
        <_>
          13 12 7 4 3.</_></rects>
      <tilted>0</tilted></_>
    <_>
      <rects>
        <_>
          13 12 2 6 -1.</_>
        <_>
          13 14 2 2 3.</_></rects>
      <tilted>0</tilted></_>
    <_>
      <rects>
        <_>
          13 14 6 4 -1.</_>
        <_>
          13 14 3 2 2.</_>
        <_>
          16 16 3 2 2.</_></rects>
      <tilted>0</tilted></_>
    <_>
      <rects>
        <_>
          13 15 5 6 -1.</_>
        <_>
          13 18 5 3 2.</_></rects>
      <tilted>0</tilted></_>
    <_>
      <rects>
        <_>
          14 3 4 4 -1.</_>
        <_>
          14 3 2 2 2.</_>
        <_>
          16 5 2 2 2.</_></rects>
      <tilted>0</tilted></_>
    <_>
      <rects>
        <_>
          14 3 4 13 -1.</_>
        <_>
          16 3 2 13 2.</_></rects>
      <tilted>0</tilted></_>
    <_>
      <rects>
        <_>
          14 6 1 2 -1.</_>
        <_>
          14 7 1 1 2.</_></rects>
      <tilted>0</tilted></_>
    <_>
      <rects>
        <_>
          14 7 2 1 -1.</_>
        <_>
          15 7 1 1 2.</_></rects>
      <tilted>0</tilted></_>
    <_>
      <rects>
        <_>
          14 15 4 9 -1.</_>
        <_>
          14 18 4 3 3.</_></rects>
      <tilted>0</tilted></_>
    <_>
      <rects>
        <_>
          14 15 8 6 -1.</_>
        <_>
          14 15 4 3 2.</_>
        <_>
          18 18 4 3 2.</_></rects>
      <tilted>0</tilted></_>
    <_>
      <rects>
        <_>
          16 18 2 2 -1.</_>
        <_>
          16 19 2 1 2.</_></rects>
      <tilted>0</tilted></_>
    <_>
      <rects>
        <_>
          17 7 6 8 -1.</_>
        <_>
          19 7 2 8 3.</_></rects>
      <tilted>0</tilted></_>
    <_>
      <rects>
        <_>
          17 8 6 7 -1.</_>
        <_>
          19 8 2 7 3.</_></rects>
      <tilted>0</tilted></_>
    <_>
      <rects>
        <_>
          18 2 4 10 -1.</_>
        <_>
          18 2 2 5 2.</_>
        <_>
          20 7 2 5 2.</_></rects>
      <tilted>0</tilted></_>
    <_>
      <rects>
        <_>
          20 10 4 3 -1.</_>
        <_>
          22 10 2 3 2.</_></rects>
      <tilted>0</tilted></_>
    <_>
      <rects>
        <_>
          20 14 1 2 -1.</_>
        <_>
          20 15 1 1 2.</_></rects>
      <tilted>0</tilted></_></features></cascade>
</opencv_storage>
