<?xml version="1.0"?>
<opencv_storage>
<cascade>
  <stageType>BOOST</stageType>
  <featureType>HAAR</featureType>
  <height>24</height>
  <width>24</width>
  <stageParams>
    <boostType>GAB</boostType>
    <minHitRate>9.9500000476837158e-01</minHitRate>
    <maxFalseAlarm>5.0000000000000000e-01</maxFalseAlarm>
    <weightTrimRate>9.4999999999999996e-01</weightTrimRate>
    <maxDepth>1</maxDepth>
    <maxWeakCount>100</maxWeakCount></stageParams>
  <featureParams>
    <maxCatCount>0</maxCatCount>
    <featSize>1</featSize>
    <mode>BASIC</mode></featureParams>
  <stageNum>15</stageNum>
  <stages>
    <!-- stage 0 -->
    <_>
      <maxWeakCount>5</maxWeakCount>
      <stageThreshold>-7.2478944063186646e-01</stageThreshold>
      <weakClassifiers>
        <_>
          <internalNodes>
            0 -1 21 -1.1096496880054474e-01</internalNodes>
          <leafValues>
            8.0620157718658447e-01 -3.9902675151824951e-01</leafValues></_>
        <_>
          <internalNodes>
            0 -1 0 1.7403072118759155e-01</internalNodes>
          <leafValues>
            -5.0907659530639648e-01 8.9720004796981812e-01</leafValues></_>
        <_>
          <internalNodes>
            0 -1 22 -3.0998336151242256e-02</internalNodes>
          <leafValues>
            8.5178297758102417e-01 -2.2965331375598907e-01</leafValues></_>
        <_>
          <internalNodes>
            0 -1 25 2.0429207012057304e-02</internalNodes>
          <leafValues>
            -3.6720380187034607e-01 7.9856860637664795e-01</leafValues></_>
        <_>
          <internalNodes>
            0 -1 97 1.8893910571932793e-02</internalNodes>
          <leafValues>
            -3.0126526951789856e-01 7.8106456995010376e-01</leafValues></_></weakClassifiers></_>
    <!-- stage 1 -->
    <_>
      <maxWeakCount>8</maxWeakCount>
      <stageThreshold>-8.3929955959320068e-01</stageThreshold>
      <weakClassifiers>
        <_>
          <internalNodes>
            0 -1 61 1.2001520954072475e-02</internalNodes>
          <leafValues>
            -3.5493826866149902e-01 8.6419755220413208e-01</leafValues></_>
        <_>
          <internalNodes>
            0 -1 61 -1.1987369507551193e-02</internalNodes>
          <leafValues>
            8.8689720630645752e-01 -2.9807344079017639e-01</leafValues></_>
        <_>
          <internalNodes>
            0 -1 65 -1.1705397628247738e-02</internalNodes>
          <leafValues>
            -8.9792114496231079e-01 3.1295305490493774e-01</leafValues></_>
        <_>
          <internalNodes>
            0 -1 4 5.8113545179367065e-02</internalNodes>
          <leafValues>
            1.9646656513214111e-01 -8.7086462974548340e-01</leafValues></_>
        <_>
          <internalNodes>
            0 -1 56 1.3283754698932171e-02</internalNodes>
          <leafValues>
            -2.6603332161903381e-01 8.3733797073364258e-01</leafValues></_>
        <_>
          <internalNodes>
            0 -1 56 -1.1729275807738304e-02</internalNodes>
          <leafValues>
            8.6966067552566528e-01 -3.3249565958976746e-01</leafValues></_>
        <_>
          <internalNodes>
            0 -1 10 -4.8691377043724060e-02</internalNodes>
          <leafValues>
            -8.7296199798583984e-01 2.9934674501419067e-01</leafValues></_>
        <_>
          <internalNodes>
            0 -1 62 3.2875992357730865e-02</internalNodes>
          <leafValues>
            -3.0253037810325623e-01 6.7080593109130859e-01</leafValues></_></weakClassifiers></_>
    <!-- stage 2 -->
    <_>
      <maxWeakCount>8</maxWeakCount>
      <stageThreshold>-9.8314064741134644e-01</stageThreshold>
      <weakClassifiers>
        <_>
          <internalNodes>
            0 -1 59 -3.1613420695066452e-02</internalNodes>
          <leafValues>
            6.9826436042785645e-01 -3.5447612404823303e-01</leafValues></_>
        <_>
          <internalNodes>
            0 -1 22 3.4462079405784607e-02</internalNodes>
          <leafValues>
            -3.6314776539802551e-01 7.5283509492874146e-01</leafValues></_>
        <_>
          <internalNodes>
            0 -1 29 -5.4218597710132599e-02</internalNodes>
          <leafValues>
            -8.3594071865081787e-01 2.5506636500358582e-01</leafValues></_>
        <_>
          <internalNodes>
            0 -1 45 5.6383796036243439e-02</internalNodes>
          <leafValues>
            1.8156237900257111e-01 -8.8399547338485718e-01</leafValues></_>
        <_>
          <internalNodes>
            0 -1 55 -1.4355749823153019e-02</internalNodes>
          <leafValues>
            6.5722668170928955e-01 -3.2907465100288391e-01</leafValues></_>
        <_>
          <internalNodes>
            0 -1 106 2.5436818599700928e-02</internalNodes>
          <leafValues>
            -2.7103656530380249e-01 7.1721053123474121e-01</leafValues></_>
        <_>
          <internalNodes>
            0 -1 111 -1.5598236583173275e-02</internalNodes>
          <leafValues>
            6.8412494659423828e-01 -2.8501862287521362e-01</leafValues></_>
        <_>
          <internalNodes>
            0 -1 66 1.0767381638288498e-02</internalNodes>
          <leafValues>
            2.8769010305404663e-01 -8.3947724103927612e-01</leafValues></_></weakClassifiers></_>
    <!-- stage 3 -->
    <_>
      <maxWeakCount>6</maxWeakCount>
      <stageThreshold>-7.9636842012405396e-01</stageThreshold>
      <weakClassifiers>
        <_>
          <internalNodes>
            0 -1 3 4.0283326059579849e-02</internalNodes>
          <leafValues>
            -3.4300273656845093e-01 7.4746006727218628e-01</leafValues></_>
        <_>
          <internalNodes>
            0 -1 97 -1.9711084663867950e-02</internalNodes>
          <leafValues>
            6.9463801383972168e-01 -3.9877870678901672e-01</leafValues></_>
        <_>
          <internalNodes>
            0 -1 121 -1.0694065713323653e-04</internalNodes>
          <leafValues>
            -7.2140336036682129e-01 2.7809858322143555e-01</leafValues></_>
        <_>
          <internalNodes>
            0 -1 121 9.9096869234926999e-05</internalNodes>
          <leafValues>
            3.2125267386436462e-01 -8.3246761560440063e-01</leafValues></_>
        <_>
          <internalNodes>
            0 -1 74 -7.4035027064383030e-03</internalNodes>
          <leafValues>
            7.5759321451187134e-01 -2.8660747408866882e-01</leafValues></_>
        <_>
          <internalNodes>
            0 -1 63 8.2311648875474930e-03</internalNodes>
          <leafValues>
            -3.0702716112136841e-01 7.9839938879013062e-01</leafValues></_></weakClassifiers></_>
    <!-- stage 4 -->
    <_>
      <maxWeakCount>9</maxWeakCount>
      <stageThreshold>-1.0712077617645264e+00</stageThreshold>
      <weakClassifiers>
        <_>
          <internalNodes>
            0 -1 12 -4.8688821494579315e-02</internalNodes>
          <leafValues>
            7.0262390375137329e-01 -3.2967892289161682e-01</leafValues></_>
        <_>
          <internalNodes>
            0 -1 43 6.8578608334064484e-02</internalNodes>
          <leafValues>
            -3.4591212868690491e-01 5.8262115716934204e-01</leafValues></_>
        <_>
          <internalNodes>
            0 -1 17 -1.3629408180713654e-01</internalNodes>
          <leafValues>
            6.1807286739349365e-01 -2.5894159078598022e-01</leafValues></_>
        <_>
          <internalNodes>
            0 -1 108 -3.6684162914752960e-02</internalNodes>
          <leafValues>
            7.2535461187362671e-01 -2.6083359122276306e-01</leafValues></_>
        <_>
          <internalNodes>
            0 -1 37 -1.3726869656238705e-04</internalNodes>
          <leafValues>
            -7.3292934894561768e-01 2.5429508090019226e-01</leafValues></_>
        <_>
          <internalNodes>
            0 -1 37 8.8541171862743795e-05</internalNodes>
          <leafValues>
            3.8095295429229736e-01 -7.2482991218566895e-01</leafValues></_>
        <_>
          <internalNodes>
            0 -1 70 1.0285419411957264e-02</internalNodes>
          <leafValues>
            -3.0249220132827759e-01 6.8874013423919678e-01</leafValues></_>
        <_>
          <internalNodes>
            0 -1 79 -5.7217818684875965e-03</internalNodes>
          <leafValues>
            7.3088800907135010e-01 -3.1459435820579529e-01</leafValues></_>
        <_>
          <internalNodes>
            0 -1 19 6.2187174335122108e-03</internalNodes>
          <leafValues>
            2.8324651718139648e-01 -7.2753840684890747e-01</leafValues></_></weakClassifiers></_>
    <!-- stage 5 -->
    <_>
      <maxWeakCount>10</maxWeakCount>
      <stageThreshold>-8.8029980659484863e-01</stageThreshold>
      <weakClassifiers>
        <_>
          <internalNodes>
            0 -1 20 -7.3486045002937317e-03</internalNodes>
          <leafValues>
            -8.7183308601379395e-01 8.7582714855670929e-02</leafValues></_>
        <_>
          <internalNodes>
            0 -1 109 4.4184185564517975e-02</internalNodes>
          <leafValues>
            -2.6709732413291931e-01 6.3496226072311401e-01</leafValues></_>
        <_>
          <internalNodes>
            0 -1 5 -3.4077882766723633e-02</internalNodes>
          <leafValues>
            6.6596037149429321e-01 -2.4862378835678101e-01</leafValues></_>
        <_>
          <internalNodes>
            0 -1 34 -2.2727511823177338e-02</internalNodes>
          <leafValues>
            6.1009931564331055e-01 -2.0660375058650970e-01</leafValues></_>
        <_>
          <internalNodes>
            0 -1 107 -2.0378135144710541e-02</internalNodes>
          <leafValues>
            5.4755550622940063e-01 -2.8650635480880737e-01</leafValues></_>
        <_>
          <internalNodes>
            0 -1 49 1.5243875794112682e-02</internalNodes>
          <leafValues>
            -1.7041456699371338e-01 7.7866005897521973e-01</leafValues></_>
        <_>
          <internalNodes>
            0 -1 57 -1.4869775623083115e-02</internalNodes>
          <leafValues>
            7.6587468385696411e-01 -2.2183243930339813e-01</leafValues></_>
        <_>
          <internalNodes>
            0 -1 121 -5.1573293603723869e-05</internalNodes>
          <leafValues>
            -4.9207240343093872e-01 3.1340461969375610e-01</leafValues></_>
        <_>
          <internalNodes>
            0 -1 46 -5.8616459369659424e-02</internalNodes>
          <leafValues>
            5.9686541557312012e-01 -2.6957914233207703e-01</leafValues></_>
        <_>
          <internalNodes>
            0 -1 52 4.6849526464939117e-02</internalNodes>
          <leafValues>
            -3.9449426531791687e-01 5.1472413539886475e-01</leafValues></_></weakClassifiers></_>
    <!-- stage 6 -->
    <_>
      <maxWeakCount>10</maxWeakCount>
      <stageThreshold>-1.0508625507354736e+00</stageThreshold>
      <weakClassifiers>
        <_>
          <internalNodes>
            0 -1 99 3.6442354321479797e-02</internalNodes>
          <leafValues>
            -3.1495144963264465e-01 6.7819547653198242e-01</leafValues></_>
        <_>
          <internalNodes>
            0 -1 84 5.3988927975296974e-03</internalNodes>
          <leafValues>
            2.0598018169403076e-01 -7.2885608673095703e-01</leafValues></_>
        <_>
          <internalNodes>
            0 -1 48 -1.8315371125936508e-02</internalNodes>
          <leafValues>
            4.3895530700683594e-01 -3.5388717055320740e-01</leafValues></_>
        <_>
          <internalNodes>
            0 -1 83 -1.9479556009173393e-02</internalNodes>
          <leafValues>
            -8.9966857433319092e-01 1.9404470920562744e-01</leafValues></_>
        <_>
          <internalNodes>
            0 -1 51 1.6999520361423492e-02</internalNodes>
          <leafValues>
            -2.5398266315460205e-01 6.6212981939315796e-01</leafValues></_>
        <_>
          <internalNodes>
            0 -1 37 -8.2164748164359480e-05</internalNodes>
          <leafValues>
            -5.9851539134979248e-01 2.3146720230579376e-01</leafValues></_>
        <_>
          <internalNodes>
            0 -1 50 -1.3827272690832615e-02</internalNodes>
          <leafValues>
            5.8801651000976563e-01 -2.9174128174781799e-01</leafValues></_>
        <_>
          <internalNodes>
            0 -1 37 1.5722303942311555e-04</internalNodes>
          <leafValues>
            2.6946043968200684e-01 -7.0172953605651855e-01</leafValues></_>
        <_>
          <internalNodes>
            0 -1 101 -3.4555783495306969e-03</internalNodes>
          <leafValues>
            7.1007859706878662e-01 -2.4449622631072998e-01</leafValues></_>
        <_>
          <internalNodes>
            0 -1 101 3.1524398364126682e-03</internalNodes>
          <leafValues>
            -1.9188541173934937e-01 7.1780687570571899e-01</leafValues></_></weakClassifiers></_>
    <!-- stage 7 -->
    <_>
      <maxWeakCount>13</maxWeakCount>
      <stageThreshold>-1.1327524185180664e+00</stageThreshold>
      <weakClassifiers>
        <_>
          <internalNodes>
            0 -1 1 6.2573298811912537e-02</internalNodes>
          <leafValues>
            -2.8212928771972656e-01 6.2622952461242676e-01</leafValues></_>
        <_>
          <internalNodes>
            0 -1 78 5.1765032112598419e-03</internalNodes>
          <leafValues>
            -2.1809384226799011e-01 5.5321282148361206e-01</leafValues></_>
        <_>
          <internalNodes>
            0 -1 80 6.5984362736344337e-03</internalNodes>
          <leafValues>
            -2.6511389017105103e-01 6.0415494441986084e-01</leafValues></_>
        <_>
          <internalNodes>
            0 -1 72 7.5150863267481327e-03</internalNodes>
          <leafValues>
            -2.0311190187931061e-01 6.6922265291213989e-01</leafValues></_>
        <_>
          <internalNodes>
            0 -1 91 -2.0787799730896950e-03</internalNodes>
          <leafValues>
            -7.2291880846023560e-01 2.3670175671577454e-01</leafValues></_>
        <_>
          <internalNodes>
            0 -1 64 -3.2067108899354935e-02</internalNodes>
          <leafValues>
            3.8920643925666809e-01 -2.9049167037010193e-01</leafValues></_>
        <_>
          <internalNodes>
            0 -1 18 -1.4934667944908142e-01</internalNodes>
          <leafValues>
            5.8913749456405640e-01 -3.1934368610382080e-01</leafValues></_>
        <_>
          <internalNodes>
            0 -1 111 -1.9534938037395477e-02</internalNodes>
          <leafValues>
            5.5555516481399536e-01 -1.9775010645389557e-01</leafValues></_>
        <_>
          <internalNodes>
            0 -1 116 3.0984926968812943e-02</internalNodes>
          <leafValues>
            -1.5926873683929443e-01 6.6082668304443359e-01</leafValues></_>
        <_>
          <internalNodes>
            0 -1 96 1.0151869617402554e-02</internalNodes>
          <leafValues>
            -2.8530767560005188e-01 4.1051048040390015e-01</leafValues></_>
        <_>
          <internalNodes>
            0 -1 60 -4.4992160052061081e-02</internalNodes>
          <leafValues>
            5.7340818643569946e-01 -2.3171262443065643e-01</leafValues></_>
        <_>
          <internalNodes>
            0 -1 23 1.3121899962425232e-01</internalNodes>
          <leafValues>
            -3.0208700895309448e-01 3.8412204384803772e-01</leafValues></_>
        <_>
          <internalNodes>
            0 -1 122 2.9826867394149303e-03</internalNodes>
          <leafValues>
            -1.6401076316833496e-01 6.5561842918395996e-01</leafValues></_></weakClassifiers></_>
    <!-- stage 8 -->
    <_>
      <maxWeakCount>10</maxWeakCount>
      <stageThreshold>-9.0885931253433228e-01</stageThreshold>
      <weakClassifiers>
        <_>
          <internalNodes>
            0 -1 119 -9.6445335657335818e-05</internalNodes>
          <leafValues>
            -7.2182255983352661e-01 1.0058187693357468e-01</leafValues></_>
        <_>
          <internalNodes>
            0 -1 119 5.3294912504497916e-05</internalNodes>
          <leafValues>
            2.1299912035465240e-01 -6.2663799524307251e-01</leafValues></_>
        <_>
          <internalNodes>
            0 -1 24 -1.2097760918550193e-04</internalNodes>
          <leafValues>
            -6.6561508178710938e-01 1.7441952228546143e-01</leafValues></_>
        <_>
          <internalNodes>
            0 -1 24 4.9480113375466317e-05</internalNodes>
          <leafValues>
            2.8390932083129883e-01 -6.1306101083755493e-01</leafValues></_>
        <_>
          <internalNodes>
            0 -1 31 1.5250868164002895e-03</internalNodes>
          <leafValues>
            -2.0435191690921783e-01 6.4518773555755615e-01</leafValues></_>
        <_>
          <internalNodes>
            0 -1 31 -1.0349820367991924e-03</internalNodes>
          <leafValues>
            5.5190747976303101e-01 -3.2000872492790222e-01</leafValues></_>
        <_>
          <internalNodes>
            0 -1 67 6.8411068059504032e-03</internalNodes>
          <leafValues>
            2.2461743652820587e-01 -8.3784425258636475e-01</leafValues></_>
        <_>
          <internalNodes>
            0 -1 105 2.0080287009477615e-02</internalNodes>
          <leafValues>
            -2.2337976098060608e-01 5.6295275688171387e-01</leafValues></_>
        <_>
          <internalNodes>
            0 -1 33 -4.2863145470619202e-02</internalNodes>
          <leafValues>
            6.7903202772140503e-01 -2.6212245225906372e-01</leafValues></_>
        <_>
          <internalNodes>
            0 -1 69 5.2130059339106083e-04</internalNodes>
          <leafValues>
            2.1384420990943909e-01 -6.4652979373931885e-01</leafValues></_></weakClassifiers></_>
    <!-- stage 9 -->
    <_>
      <maxWeakCount>12</maxWeakCount>
      <stageThreshold>-9.3904227018356323e-01</stageThreshold>
      <weakClassifiers>
        <_>
          <internalNodes>
            0 -1 104 3.5145061556249857e-03</internalNodes>
          <leafValues>
            -2.8322356939315796e-01 5.6297421455383301e-01</leafValues></_>
        <_>
          <internalNodes>
            0 -1 104 -3.2868778798729181e-03</internalNodes>
          <leafValues>
            6.7185825109481812e-01 -2.1747486293315887e-01</leafValues></_>
        <_>
          <internalNodes>
            0 -1 44 -4.7070823609828949e-02</internalNodes>
          <leafValues>
            -8.2841175794601440e-01 1.6764090955257416e-01</leafValues></_>
        <_>
          <internalNodes>
            0 -1 30 5.4616220295429230e-02</internalNodes>
          <leafValues>
            1.8154112994670868e-01 -8.0698907375335693e-01</leafValues></_>
        <_>
          <internalNodes>
            0 -1 8 6.1944961547851563e-02</internalNodes>
          <leafValues>
            6.1267059296369553e-02 -8.7964427471160889e-01</leafValues></_>
        <_>
          <internalNodes>
            0 -1 7 -5.4512299597263336e-02</internalNodes>
          <leafValues>
            -8.0738049745559692e-01 1.3009978830814362e-01</leafValues></_>
        <_>
          <internalNodes>
            0 -1 73 -7.8950040042400360e-03</internalNodes>
          <leafValues>
            5.6545209884643555e-01 -2.0151056349277496e-01</leafValues></_>
        <_>
          <internalNodes>
            0 -1 13 -2.1024189889431000e-02</internalNodes>
          <leafValues>
            6.2135750055313110e-01 -2.0493088662624359e-01</leafValues></_>
        <_>
          <internalNodes>
            0 -1 69 -5.3388415835797787e-04</internalNodes>
          <leafValues>
            -6.0786598920822144e-01 2.5152814388275146e-01</leafValues></_>
        <_>
          <internalNodes>
            0 -1 47 -1.4493860304355621e-02</internalNodes>
          <leafValues>
            6.1400520801544189e-01 -2.1477732062339783e-01</leafValues></_>
        <_>
          <internalNodes>
            0 -1 40 -2.0878221839666367e-03</internalNodes>
          <leafValues>
            7.4211549758911133e-01 -1.5069550275802612e-01</leafValues></_>
        <_>
          <internalNodes>
            0 -1 2 1.1427255347371101e-02</internalNodes>
          <leafValues>
            -1.8969196081161499e-01 6.7812466621398926e-01</leafValues></_></weakClassifiers></_>
    <!-- stage 10 -->
    <_>
      <maxWeakCount>14</maxWeakCount>
      <stageThreshold>-1.0693831443786621e+00</stageThreshold>
      <weakClassifiers>
        <_>
          <internalNodes>
            0 -1 41 -3.6844718270003796e-03</internalNodes>
          <leafValues>
            5.7710653543472290e-01 -2.7690538763999939e-01</leafValues></_>
        <_>
          <internalNodes>
            0 -1 28 2.4890960194170475e-03</internalNodes>
          <leafValues>
            -2.1158009767532349e-01 5.8439630270004272e-01</leafValues></_>
        <_>
          <internalNodes>
            0 -1 100 -1.5417800750583410e-04</internalNodes>
          <leafValues>
            -6.4485353231430054e-01 2.1878080070018768e-01</leafValues></_>
        <_>
          <internalNodes>
            0 -1 37 -1.0610283061396331e-04</internalNodes>
          <leafValues>
            -6.0983908176422119e-01 1.3596698641777039e-01</leafValues></_>
        <_>
          <internalNodes>
            0 -1 15 3.6553135141730309e-03</internalNodes>
          <leafValues>
            -1.7550182342529297e-01 5.4943317174911499e-01</leafValues></_>
        <_>
          <internalNodes>
            0 -1 94 3.9401496760547161e-03</internalNodes>
          <leafValues>
            -2.2668947279453278e-01 5.5846309661865234e-01</leafValues></_>
        <_>
          <internalNodes>
            0 -1 56 -9.0668108314275742e-03</internalNodes>
          <leafValues>
            5.7721132040023804e-01 -1.3291768729686737e-01</leafValues></_>
        <_>
          <internalNodes>
            0 -1 9 -3.9317822083830833e-03</internalNodes>
          <leafValues>
            6.7963296175003052e-01 -2.0762024819850922e-01</leafValues></_>
        <_>
          <internalNodes>
            0 -1 103 2.1952716633677483e-02</internalNodes>
          <leafValues>
            -1.3105580210685730e-01 5.7837378978729248e-01</leafValues></_>
        <_>
          <internalNodes>
            0 -1 16 1.1344602331519127e-02</internalNodes>
          <leafValues>
            -1.5444171428680420e-01 7.2805088758468628e-01</leafValues></_>
        <_>
          <internalNodes>
            0 -1 19 -6.7154411226511002e-03</internalNodes>
          <leafValues>
            -8.4559059143066406e-01 1.3565090298652649e-01</leafValues></_>
        <_>
          <internalNodes>
            0 -1 120 -1.4665687922388315e-04</internalNodes>
          <leafValues>
            -5.4283326864242554e-01 1.6949270665645599e-01</leafValues></_>
        <_>
          <internalNodes>
            0 -1 120 1.1676114809233695e-04</internalNodes>
          <leafValues>
            2.2331136465072632e-01 -4.9940595030784607e-01</leafValues></_>
        <_>
          <internalNodes>
            0 -1 82 -8.0445911735296249e-03</internalNodes>
          <leafValues>
            7.0003718137741089e-01 -1.6406184434890747e-01</leafValues></_></weakClassifiers></_>
    <!-- stage 11 -->
    <_>
      <maxWeakCount>13</maxWeakCount>
      <stageThreshold>-1.3715723752975464e+00</stageThreshold>
      <weakClassifiers>
        <_>
          <internalNodes>
            0 -1 48 2.1507756784558296e-02</internalNodes>
          <leafValues>
            -3.1862312555313110e-01 3.7166324257850647e-01</leafValues></_>
        <_>
          <internalNodes>
            0 -1 77 -6.2231598421931267e-03</internalNodes>
          <leafValues>
            6.0769146680831909e-01 -2.7628582715988159e-01</leafValues></_>
        <_>
          <internalNodes>
            0 -1 53 -2.7837548404932022e-02</internalNodes>
          <leafValues>
            -8.5896497964859009e-01 1.3405279815196991e-01</leafValues></_>
        <_>
          <internalNodes>
            0 -1 76 1.1225925758481026e-02</internalNodes>
          <leafValues>
            1.7941823601722717e-01 -6.8310070037841797e-01</leafValues></_>
        <_>
          <internalNodes>
            0 -1 11 -3.4790909849107265e-03</internalNodes>
          <leafValues>
            6.0640329122543335e-01 -2.1819870173931122e-01</leafValues></_>
        <_>
          <internalNodes>
            0 -1 54 -1.9380908459424973e-02</internalNodes>
          <leafValues>
            -7.8291684389114380e-01 1.5723977982997894e-01</leafValues></_>
        <_>
          <internalNodes>
            0 -1 85 1.1636612471193075e-03</internalNodes>
          <leafValues>
            -2.6369205117225647e-01 4.7878724336624146e-01</leafValues></_>
        <_>
          <internalNodes>
            0 -1 87 -3.6377011565491557e-04</internalNodes>
          <leafValues>
            4.5445734262466431e-01 -2.6547655463218689e-01</leafValues></_>
        <_>
          <internalNodes>
            0 -1 100 1.5313683252315968e-04</internalNodes>
          <leafValues>
            1.8540309369564056e-01 -5.7866346836090088e-01</leafValues></_>
        <_>
          <internalNodes>
            0 -1 16 -1.1297477409243584e-02</internalNodes>
          <leafValues>
            7.5122451782226563e-01 -1.5232668817043304e-01</leafValues></_>
        <_>
          <internalNodes>
            0 -1 6 5.0111263990402222e-03</internalNodes>
          <leafValues>
            -1.7338255047798157e-01 5.6222164630889893e-01</leafValues></_>
        <_>
          <internalNodes>
            0 -1 14 3.0556409619748592e-03</internalNodes>
          <leafValues>
            -1.8737791478633881e-01 5.4470968246459961e-01</leafValues></_>
        <_>
          <internalNodes>
            0 -1 115 -8.1079676747322083e-03</internalNodes>
          <leafValues>
            5.9174370765686035e-01 -1.8704609572887421e-01</leafValues></_></weakClassifiers></_>
    <!-- stage 12 -->
    <_>
      <maxWeakCount>13</maxWeakCount>
      <stageThreshold>-7.8952980041503906e-01</stageThreshold>
      <weakClassifiers>
        <_>
          <internalNodes>
            0 -1 38 2.3540847003459930e-02</internalNodes>
          <leafValues>
            5.2343748509883881e-02 -7.2647058963775635e-01</leafValues></_>
        <_>
          <internalNodes>
            0 -1 118 -4.9177295295521617e-05</internalNodes>
          <leafValues>
            -5.1629161834716797e-01 2.0677199959754944e-01</leafValues></_>
        <_>
          <internalNodes>
            0 -1 36 -4.4142454862594604e-02</internalNodes>
          <leafValues>
            -7.9526507854461670e-01 1.4235885441303253e-01</leafValues></_>
        <_>
          <internalNodes>
            0 -1 118 8.2055390521418303e-05</internalNodes>
          <leafValues>
            1.7524291574954987e-01 -5.3149539232254028e-01</leafValues></_>
        <_>
          <internalNodes>
            0 -1 113 -9.5250839367508888e-03</internalNodes>
          <leafValues>
            7.2847729921340942e-01 -1.4637669920921326e-01</leafValues></_>
        <_>
          <internalNodes>
            0 -1 114 2.5864439085125923e-03</internalNodes>
          <leafValues>
            -2.5893929600715637e-01 6.2374854087829590e-01</leafValues></_>
        <_>
          <internalNodes>
            0 -1 75 -1.0325827635824680e-02</internalNodes>
          <leafValues>
            -7.2364807128906250e-01 2.1195511519908905e-01</leafValues></_>
        <_>
          <internalNodes>
            0 -1 95 4.8721777275204659e-03</internalNodes>
          <leafValues>
            -2.0202183723449707e-01 5.2757877111434937e-01</leafValues></_>
        <_>
          <internalNodes>
            0 -1 102 2.9100209940224886e-03</internalNodes>
          <leafValues>
            -2.0105916261672974e-01 6.0686790943145752e-01</leafValues></_>
        <_>
          <internalNodes>
            0 -1 90 2.0489189773797989e-02</internalNodes>
          <leafValues>
            -1.3267841935157776e-01 6.6105407476425171e-01</leafValues></_>
        <_>
          <internalNodes>
            0 -1 89 -1.1986816301941872e-02</internalNodes>
          <leafValues>
            6.2182736396789551e-01 -1.6435648500919342e-01</leafValues></_>
        <_>
          <internalNodes>
            0 -1 26 -8.9295426732860506e-05</internalNodes>
          <leafValues>
            -5.8396214246749878e-01 1.9179007411003113e-01</leafValues></_>
        <_>
          <internalNodes>
            0 -1 26 1.0330906661693007e-04</internalNodes>
          <leafValues>
            2.1813046932220459e-01 -6.7109757661819458e-01</leafValues></_></weakClassifiers></_>
    <!-- stage 13 -->
    <_>
      <maxWeakCount>13</maxWeakCount>
      <stageThreshold>-1.3168429136276245e+00</stageThreshold>
      <weakClassifiers>
        <_>
          <internalNodes>
            0 -1 92 7.4836388230323792e-03</internalNodes>
          <leafValues>
            6.3339732587337494e-02 -8.2677167654037476e-01</leafValues></_>
        <_>
          <internalNodes>
            0 -1 45 -4.3286271393299103e-02</internalNodes>
          <leafValues>
            -8.0081242322921753e-01 1.2742033600807190e-01</leafValues></_>
        <_>
          <internalNodes>
            0 -1 98 6.7528039216995239e-02</internalNodes>
          <leafValues>
            -1.9885392487049103e-01 7.7582794427871704e-01</leafValues></_>
        <_>
          <internalNodes>
            0 -1 123 -1.3158487854525447e-03</internalNodes>
          <leafValues>
            7.9411029815673828e-01 -1.4627678692340851e-01</leafValues></_>
        <_>
          <internalNodes>
            0 -1 110 -1.0192859917879105e-02</internalNodes>
          <leafValues>
            5.4765635728836060e-01 -2.0942279696464539e-01</leafValues></_>
        <_>
          <internalNodes>
            0 -1 117 1.1505354195833206e-02</internalNodes>
          <leafValues>
            -2.0936292409896851e-01 6.1768621206283569e-01</leafValues></_>
        <_>
          <internalNodes>
            0 -1 32 -1.6014371067285538e-02</internalNodes>
          <leafValues>
            6.9111698865890503e-01 -1.7087686061859131e-01</leafValues></_>
        <_>
          <internalNodes>
            0 -1 68 2.3185282771009952e-04</internalNodes>
          <leafValues>
            1.7447540163993835e-01 -7.7266526222229004e-01</leafValues></_>
        <_>
          <internalNodes>
            0 -1 41 3.6014798097312450e-03</internalNodes>
          <leafValues>
            -1.6079717874526978e-01 8.2215869426727295e-01</leafValues></_>
        <_>
          <internalNodes>
            0 -1 39 9.4508921029046178e-04</internalNodes>
          <leafValues>
            -2.7011883258819580e-01 4.9252232909202576e-01</leafValues></_>
        <_>
          <internalNodes>
            0 -1 35 -5.8390838094055653e-03</internalNodes>
          <leafValues>
            -9.1059350967407227e-01 1.8207260966300964e-01</leafValues></_>
        <_>
          <internalNodes>
            0 -1 27 1.0876046144403517e-04</internalNodes>
          <leafValues>
            2.1879421174526215e-01 -5.2904194593429565e-01</leafValues></_>
        <_>
          <internalNodes>
            0 -1 86 1.4214383438229561e-02</internalNodes>
          <leafValues>
            1.3178390264511108e-01 -8.5648673772811890e-01</leafValues></_></weakClassifiers></_>
    <!-- stage 14 -->
    <_>
      <maxWeakCount>8</maxWeakCount>
      <stageThreshold>-1.0862277746200562e+00</stageThreshold>
      <weakClassifiers>
        <_>
          <internalNodes>
            0 -1 58 -1.5497576445341110e-02</internalNodes>
          <leafValues>
            5.6462585926055908e-01 -3.6386767029762268e-01</leafValues></_>
        <_>
          <internalNodes>
            0 -1 81 1.9073197618126869e-02</internalNodes>
          <leafValues>
            -3.6049413681030273e-01 5.3747242689132690e-01</leafValues></_>
        <_>
          <internalNodes>
            0 -1 42 1.2673648074269295e-02</internalNodes>
          <leafValues>
            3.3075276017189026e-01 -5.2796387672424316e-01</leafValues></_>
        <_>
          <internalNodes>
            0 -1 112 -6.1018629930913448e-03</internalNodes>
          <leafValues>
            8.2256531715393066e-01 -1.9775256514549255e-01</leafValues></_>
        <_>
          <internalNodes>
            0 -1 93 1.7152369255200028e-03</internalNodes>
          <leafValues>
            -3.0316409468650818e-01 6.4314448833465576e-01</leafValues></_>
        <_>
          <internalNodes>
            0 -1 92 -5.2408678457140923e-03</internalNodes>
          <leafValues>
            -5.5631500482559204e-01 3.1827706098556519e-01</leafValues></_>
        <_>
          <internalNodes>
            0 -1 88 3.2880909275263548e-03</internalNodes>
          <leafValues>
            -2.7154099941253662e-01 6.3667911291122437e-01</leafValues></_>
        <_>
          <internalNodes>
            0 -1 71 -2.0196845289319754e-03</internalNodes>
          <leafValues>
            5.5723011493682861e-01 -2.8794154524803162e-01</leafValues></_></weakClassifiers></_></stages>
  <features>
    <_>
      <rects>
        <_>
          3 7 18 8 -1.</_>
        <_>
          9 7 6 8 3.</_></rects>
      <tilted>0</tilted></_>
    <_>
      <rects>
        <_>
          3 8 6 8 -1.</_>
        <_>
          5 8 2 8 3.</_></rects>
      <tilted>0</tilted></_>
    <_>
      <rects>
        <_>
          3 9 3 6 -1.</_>
        <_>
          4 9 1 6 3.</_></rects>
      <tilted>0</tilted></_>
    <_>
      <rects>
        <_>
          3 9 6 6 -1.</_>
        <_>
          5 9 2 6 3.</_></rects>
      <tilted>0</tilted></_>
    <_>
      <rects>
        <_>
          3 9 18 8 -1.</_>
        <_>
          12 9 9 8 2.</_></rects>
      <tilted>0</tilted></_>
    <_>
      <rects>
        <_>
          3 10 6 5 -1.</_>
        <_>
          5 10 2 5 3.</_></rects>
      <tilted>0</tilted></_>
    <_>
      <rects>
        <_>
          3 14 4 4 -1.</_>
        <_>
          3 14 2 2 2.</_>
        <_>
          5 16 2 2 2.</_></rects>
      <tilted>0</tilted></_>
    <_>
      <rects>
        <_>
          4 5 16 11 -1.</_>
        <_>
          12 5 8 11 2.</_></rects>
      <tilted>0</tilted></_>
    <_>
      <rects>
        <_>
          4 6 16 10 -1.</_>
        <_>
          12 6 8 10 2.</_></rects>
      <tilted>0</tilted></_>
    <_>
      <rects>
        <_>
          4 7 2 4 -1.</_>
        <_>
          4 7 1 2 2.</_>
        <_>
          5 9 1 2 2.</_></rects>
      <tilted>0</tilted></_>
    <_>
      <rects>
        <_>
          4 9 16 8 -1.</_>
        <_>
          12 9 8 8 2.</_></rects>
      <tilted>0</tilted></_>
    <_>
      <rects>
        <_>
          4 14 2 4 -1.</_>
        <_>
          4 14 1 2 2.</_>
        <_>
          5 16 1 2 2.</_></rects>
      <tilted>0</tilted></_>
    <_>
      <rects>
        <_>
          5 2 6 12 -1.</_>
        <_>
          5 2 3 6 2.</_>
        <_>
          8 8 3 6 2.</_></rects>
      <tilted>0</tilted></_>
    <_>
      <rects>
        <_>
          5 4 10 4 -1.</_>
        <_>
          5 4 5 2 2.</_>
        <_>
          10 6 5 2 2.</_></rects>
      <tilted>0</tilted></_>
    <_>
      <rects>
        <_>
          5 5 2 4 -1.</_>
        <_>
          5 5 1 2 2.</_>
        <_>
          6 7 1 2 2.</_></rects>
      <tilted>0</tilted></_>
    <_>
      <rects>
        <_>
          5 5 4 2 -1.</_>
        <_>
          5 5 2 1 2.</_>
        <_>
          7 6 2 1 2.</_></rects>
      <tilted>0</tilted></_>
    <_>
      <rects>
        <_>
          5 5 4 4 -1.</_>
        <_>
          5 5 2 2 2.</_>
        <_>
          7 7 2 2 2.</_></rects>
      <tilted>0</tilted></_>
    <_>
      <rects>
        <_>
          5 7 15 8 -1.</_>
        <_>
          10 7 5 8 3.</_></rects>
      <tilted>0</tilted></_>
    <_>
      <rects>
        <_>
          5 7 15 9 -1.</_>
        <_>
          10 7 5 9 3.</_></rects>
      <tilted>0</tilted></_>
    <_>
      <rects>
        <_>
          5 8 7 4 -1.</_>
        <_>
          5 10 7 2 2.</_></rects>
      <tilted>0</tilted></_>
    <_>
      <rects>
        <_>
          5 8 9 4 -1.</_>
        <_>
          5 10 9 2 2.</_></rects>
      <tilted>0</tilted></_>
    <_>
      <rects>
        <_>
          5 9 15 6 -1.</_>
        <_>
          10 9 5 6 3.</_></rects>
      <tilted>0</tilted></_>
    <_>
      <rects>
        <_>
          5 10 6 4 -1.</_>
        <_>
          8 10 3 4 2.</_></rects>
      <tilted>0</tilted></_>
    <_>
      <rects>
        <_>
          5 10 15 8 -1.</_>
        <_>
          10 10 5 8 3.</_></rects>
      <tilted>0</tilted></_>
    <_>
      <rects>
        <_>
          5 11 1 2 -1.</_>
        <_>
          5 12 1 1 2.</_></rects>
      <tilted>0</tilted></_>
    <_>
      <rects>
        <_>
          5 11 6 3 -1.</_>
        <_>
          8 11 3 3 2.</_></rects>
      <tilted>0</tilted></_>
    <_>
      <rects>
        <_>
          5 12 1 2 -1.</_>
        <_>
          5 13 1 1 2.</_></rects>
      <tilted>0</tilted></_>
    <_>
      <rects>
        <_>
          5 12 2 2 -1.</_>
        <_>
          6 12 1 2 2.</_></rects>
      <tilted>0</tilted></_>
    <_>
      <rects>
        <_>
          5 17 4 2 -1.</_>
        <_>
          5 17 2 1 2.</_>
        <_>
          7 18 2 1 2.</_></rects>
      <tilted>0</tilted></_>
    <_>
      <rects>
        <_>
          6 4 12 16 -1.</_>
        <_>
          6 12 12 8 2.</_></rects>
      <tilted>0</tilted></_>
    <_>
      <rects>
        <_>
          6 4 13 16 -1.</_>
        <_>
          6 12 13 8 2.</_></rects>
      <tilted>0</tilted></_>
    <_>
      <rects>
        <_>
          6 5 2 2 -1.</_>
        <_>
          6 5 1 1 2.</_>
        <_>
          7 6 1 1 2.</_></rects>
      <tilted>0</tilted></_>
    <_>
      <rects>
        <_>
          6 8 3 8 -1.</_>
        <_>
          6 12 3 4 2.</_></rects>
      <tilted>0</tilted></_>
    <_>
      <rects>
        <_>
          6 8 12 10 -1.</_>
        <_>
          6 8 6 5 2.</_>
        <_>
          12 13 6 5 2.</_></rects>
      <tilted>0</tilted></_>
    <_>
      <rects>
        <_>
          6 10 4 5 -1.</_>
        <_>
          8 10 2 5 2.</_></rects>
      <tilted>0</tilted></_>
    <_>
      <rects>
        <_>
          6 10 13 2 -1.</_>
        <_>
          6 11 13 1 2.</_></rects>
      <tilted>0</tilted></_>
    <_>
      <rects>
        <_>
          6 11 13 8 -1.</_>
        <_>
          6 15 13 4 2.</_></rects>
      <tilted>0</tilted></_>
    <_>
      <rects>
        <_>
          6 12 1 2 -1.</_>
        <_>
          6 13 1 1 2.</_></rects>
      <tilted>0</tilted></_>
    <_>
      <rects>
        <_>
          6 12 12 8 -1.</_>
        <_>
          6 16 12 4 2.</_></rects>
      <tilted>0</tilted></_>
    <_>
      <rects>
        <_>
          6 17 2 1 -1.</_>
        <_>
          7 17 1 1 2.</_></rects>
      <tilted>0</tilted></_>
    <_>
      <rects>
        <_>
          6 17 2 2 -1.</_>
        <_>
          6 17 1 1 2.</_>
        <_>
          7 18 1 1 2.</_></rects>
      <tilted>0</tilted></_>
    <_>
      <rects>
        <_>
          6 18 4 2 -1.</_>
        <_>
          6 18 2 1 2.</_>
        <_>
          8 19 2 1 2.</_></rects>
      <tilted>0</tilted></_>
    <_>
      <rects>
        <_>
          7 3 10 7 -1.</_>
        <_>
          12 3 5 7 2.</_></rects>
      <tilted>0</tilted></_>
    <_>
      <rects>
        <_>
          7 4 10 12 -1.</_>
        <_>
          7 8 10 4 3.</_></rects>
      <tilted>0</tilted></_>
    <_>
      <rects>
        <_>
          7 4 10 16 -1.</_>
        <_>
          7 12 10 8 2.</_></rects>
      <tilted>0</tilted></_>
    <_>
      <rects>
        <_>
          7 4 11 16 -1.</_>
        <_>
          7 12 11 8 2.</_></rects>
      <tilted>0</tilted></_>
    <_>
      <rects>
        <_>
          7 5 10 12 -1.</_>
        <_>
          7 9 10 4 3.</_></rects>
      <tilted>0</tilted></_>
    <_>
      <rects>
        <_>
          7 9 2 8 -1.</_>
        <_>
          7 13 2 4 2.</_></rects>
      <tilted>0</tilted></_>
    <_>
      <rects>
        <_>
          7 10 11 6 -1.</_>
        <_>
          7 13 11 3 2.</_></rects>
      <tilted>0</tilted></_>
    <_>
      <rects>
        <_>
          8 3 8 3 -1.</_>
        <_>
          8 4 8 1 3.</_></rects>
      <tilted>0</tilted></_>
    <_>
      <rects>
        <_>
          8 4 7 3 -1.</_>
        <_>
          8 5 7 1 3.</_></rects>
      <tilted>0</tilted></_>
    <_>
      <rects>
        <_>
          8 4 8 3 -1.</_>
        <_>
          8 5 8 1 3.</_></rects>
      <tilted>0</tilted></_>
    <_>
      <rects>
        <_>
          8 4 8 8 -1.</_>
        <_>
          8 8 8 4 2.</_></rects>
      <tilted>0</tilted></_>
    <_>
      <rects>
        <_>
          8 5 8 12 -1.</_>
        <_>
          8 5 4 6 2.</_>
        <_>
          12 11 4 6 2.</_></rects>
      <tilted>0</tilted></_>
    <_>
      <rects>
        <_>
          8 5 10 3 -1.</_>
        <_>
          13 5 5 3 2.</_></rects>
      <tilted>0</tilted></_>
    <_>
      <rects>
        <_>
          8 18 7 4 -1.</_>
        <_>
          8 20 7 2 2.</_></rects>
      <tilted>0</tilted></_>
    <_>
      <rects>
        <_>
          9 3 6 3 -1.</_>
        <_>
          9 4 6 1 3.</_></rects>
      <tilted>0</tilted></_>
    <_>
      <rects>
        <_>
          9 3 7 3 -1.</_>
        <_>
          9 4 7 1 3.</_></rects>
      <tilted>0</tilted></_>
    <_>
      <rects>
        <_>
          9 4 2 12 -1.</_>
        <_>
          9 8 2 4 3.</_></rects>
      <tilted>0</tilted></_>
    <_>
      <rects>
        <_>
          9 4 6 6 -1.</_>
        <_>
          9 7 6 3 2.</_></rects>
      <tilted>0</tilted></_>
    <_>
      <rects>
        <_>
          9 4 6 12 -1.</_>
        <_>
          9 8 6 4 3.</_></rects>
      <tilted>0</tilted></_>
    <_>
      <rects>
        <_>
          9 4 7 3 -1.</_>
        <_>
          9 5 7 1 3.</_></rects>
      <tilted>0</tilted></_>
    <_>
      <rects>
        <_>
          9 4 7 6 -1.</_>
        <_>
          9 7 7 3 2.</_></rects>
      <tilted>0</tilted></_>
    <_>
      <rects>
        <_>
          9 5 5 2 -1.</_>
        <_>
          9 6 5 1 2.</_></rects>
      <tilted>0</tilted></_>
    <_>
      <rects>
        <_>
          9 7 6 14 -1.</_>
        <_>
          9 14 6 7 2.</_></rects>
      <tilted>0</tilted></_>
    <_>
      <rects>
        <_>
          9 9 6 6 -1.</_>
        <_>
          12 9 3 6 2.</_></rects>
      <tilted>0</tilted></_>
    <_>
      <rects>
        <_>
          9 9 6 7 -1.</_>
        <_>
          12 9 3 7 2.</_></rects>
      <tilted>0</tilted></_>
    <_>
      <rects>
        <_>
          9 9 7 4 -1.</_>
        <_>
          9 11 7 2 2.</_></rects>
      <tilted>0</tilted></_>
    <_>
      <rects>
        <_>
          9 10 1 2 -1.</_>
        <_>
          9 11 1 1 2.</_></rects>
      <tilted>0</tilted></_>
    <_>
      <rects>
        <_>
          9 11 2 2 -1.</_>
        <_>
          10 11 1 2 2.</_></rects>
      <tilted>0</tilted></_>
    <_>
      <rects>
        <_>
          9 18 6 3 -1.</_>
        <_>
          9 19 6 1 3.</_></rects>
      <tilted>0</tilted></_>
    <_>
      <rects>
        <_>
          9 19 3 2 -1.</_>
        <_>
          9 20 3 1 2.</_></rects>
      <tilted>0</tilted></_>
    <_>
      <rects>
        <_>
          9 19 5 3 -1.</_>
        <_>
          9 20 5 1 3.</_></rects>
      <tilted>0</tilted></_>
    <_>
      <rects>
        <_>
          9 19 7 2 -1.</_>
        <_>
          9 20 7 1 2.</_></rects>
      <tilted>0</tilted></_>
    <_>
      <rects>
        <_>
          10 5 4 2 -1.</_>
        <_>
          10 6 4 1 2.</_></rects>
      <tilted>0</tilted></_>
    <_>
      <rects>
        <_>
          10 10 6 6 -1.</_>
        <_>
          13 10 3 6 2.</_></rects>
      <tilted>0</tilted></_>
    <_>
      <rects>
        <_>
          10 11 6 6 -1.</_>
        <_>
          13 11 3 6 2.</_></rects>
      <tilted>0</tilted></_>
    <_>
      <rects>
        <_>
          10 12 5 4 -1.</_>
        <_>
          10 14 5 2 2.</_></rects>
      <tilted>0</tilted></_>
    <_>
      <rects>
        <_>
          10 17 4 3 -1.</_>
        <_>
          10 18 4 1 3.</_></rects>
      <tilted>0</tilted></_>
    <_>
      <rects>
        <_>
          10 18 4 3 -1.</_>
        <_>
          10 19 4 1 3.</_></rects>
      <tilted>0</tilted></_>
    <_>
      <rects>
        <_>
          10 18 5 3 -1.</_>
        <_>
          10 19 5 1 3.</_></rects>
      <tilted>0</tilted></_>
    <_>
      <rects>
        <_>
          11 4 4 6 -1.</_>
        <_>
          11 7 4 3 2.</_></rects>
      <tilted>0</tilted></_>
    <_>
      <rects>
        <_>
          11 5 6 2 -1.</_>
        <_>
          11 5 3 1 2.</_>
        <_>
          14 6 3 1 2.</_></rects>
      <tilted>0</tilted></_>
    <_>
      <rects>
        <_>
          11 8 3 10 -1.</_>
        <_>
          11 13 3 5 2.</_></rects>
      <tilted>0</tilted></_>
    <_>
      <rects>
        <_>
          11 8 8 4 -1.</_>
        <_>
          11 10 8 2 2.</_></rects>
      <tilted>0</tilted></_>
    <_>
      <rects>
        <_>
          11 10 3 2 -1.</_>
        <_>
          12 10 1 2 3.</_></rects>
      <tilted>0</tilted></_>
    <_>
      <rects>
        <_>
          11 10 2 10 -1.</_>
        <_>
          11 15 2 5 2.</_></rects>
      <tilted>0</tilted></_>
    <_>
      <rects>
        <_>
          11 11 3 1 -1.</_>
        <_>
          12 11 1 1 3.</_></rects>
      <tilted>0</tilted></_>
    <_>
      <rects>
        <_>
          11 16 3 3 -1.</_>
        <_>
          11 17 3 1 3.</_></rects>
      <tilted>0</tilted></_>
    <_>
      <rects>
        <_>
          12 9 6 6 -1.</_>
        <_>
          12 9 3 3 2.</_>
        <_>
          15 12 3 3 2.</_></rects>
      <tilted>0</tilted></_>
    <_>
      <rects>
        <_>
          12 9 6 8 -1.</_>
        <_>
          12 9 3 4 2.</_>
        <_>
          15 13 3 4 2.</_></rects>
      <tilted>0</tilted></_>
    <_>
      <rects>
        <_>
          12 9 7 2 -1.</_>
        <_>
          12 10 7 1 2.</_></rects>
      <tilted>0</tilted></_>
    <_>
      <rects>
        <_>
          12 11 1 10 -1.</_>
        <_>
          12 16 1 5 2.</_></rects>
      <tilted>0</tilted></_>
    <_>
      <rects>
        <_>
          12 17 3 3 -1.</_>
        <_>
          12 18 3 1 3.</_></rects>
      <tilted>0</tilted></_>
    <_>
      <rects>
        <_>
          13 3 2 3 -1.</_>
        <_>
          13 4 2 1 3.</_></rects>
      <tilted>0</tilted></_>
    <_>
      <rects>
        <_>
          13 4 2 3 -1.</_>
        <_>
          13 5 2 1 3.</_></rects>
      <tilted>0</tilted></_>
    <_>
      <rects>
        <_>
          13 4 2 6 -1.</_>
        <_>
          13 7 2 3 2.</_></rects>
      <tilted>0</tilted></_>
    <_>
      <rects>
        <_>
          13 11 6 3 -1.</_>
        <_>
          16 11 3 3 2.</_></rects>
      <tilted>0</tilted></_>
    <_>
      <rects>
        <_>
          13 11 9 6 -1.</_>
        <_>
          16 11 3 6 3.</_></rects>
      <tilted>0</tilted></_>
    <_>
      <rects>
        <_>
          14 4 6 10 -1.</_>
        <_>
          14 4 3 5 2.</_>
        <_>
          17 9 3 5 2.</_></rects>
      <tilted>0</tilted></_>
    <_>
      <rects>
        <_>
          14 10 1 2 -1.</_>
        <_>
          14 11 1 1 2.</_></rects>
      <tilted>0</tilted></_>
    <_>
      <rects>
        <_>
          14 18 4 2 -1.</_>
        <_>
          14 18 2 1 2.</_>
        <_>
          16 19 2 1 2.</_></rects>
      <tilted>0</tilted></_>
    <_>
      <rects>
        <_>
          15 4 4 2 -1.</_>
        <_>
          15 4 2 1 2.</_>
        <_>
          17 5 2 1 2.</_></rects>
      <tilted>0</tilted></_>
    <_>
      <rects>
        <_>
          15 4 4 10 -1.</_>
        <_>
          15 4 2 5 2.</_>
        <_>
          17 9 2 5 2.</_></rects>
      <tilted>0</tilted></_>
    <_>
      <rects>
        <_>
          15 5 4 2 -1.</_>
        <_>
          15 5 2 1 2.</_>
        <_>
          17 6 2 1 2.</_></rects>
      <tilted>0</tilted></_>
    <_>
      <rects>
        <_>
          15 7 3 10 -1.</_>
        <_>
          15 12 3 5 2.</_></rects>
      <tilted>0</tilted></_>
    <_>
      <rects>
        <_>
          15 9 4 6 -1.</_>
        <_>
          17 9 2 6 2.</_></rects>
      <tilted>0</tilted></_>
    <_>
      <rects>
        <_>
          15 10 4 6 -1.</_>
        <_>
          17 10 2 6 2.</_></rects>
      <tilted>0</tilted></_>
    <_>
      <rects>
        <_>
          15 10 6 6 -1.</_>
        <_>
          17 10 2 6 3.</_></rects>
      <tilted>0</tilted></_>
    <_>
      <rects>
        <_>
          15 10 6 7 -1.</_>
        <_>
          17 10 2 7 3.</_></rects>
      <tilted>0</tilted></_>
    <_>
      <rects>
        <_>
          15 10 4 9 -1.</_>
        <_>
          15 13 4 3 3.</_></rects>
      <tilted>0</tilted></_>
    <_>
      <rects>
        <_>
          15 11 6 3 -1.</_>
        <_>
          17 11 2 3 3.</_></rects>
      <tilted>0</tilted></_>
    <_>
      <rects>
        <_>
          15 16 4 4 -1.</_>
        <_>
          15 16 2 2 2.</_>
        <_>
          17 18 2 2 2.</_></rects>
      <tilted>0</tilted></_>
    <_>
      <rects>
        <_>
          16 5 4 4 -1.</_>
        <_>
          16 5 2 2 2.</_>
        <_>
          18 7 2 2 2.</_></rects>
      <tilted>0</tilted></_>
    <_>
      <rects>
        <_>
          16 6 4 2 -1.</_>
        <_>
          16 6 2 1 2.</_>
        <_>
          18 7 2 1 2.</_></rects>
      <tilted>0</tilted></_>
    <_>
      <rects>
        <_>
          16 8 1 8 -1.</_>
        <_>
          16 12 1 4 2.</_></rects>
      <tilted>0</tilted></_>
    <_>
      <rects>
        <_>
          16 9 6 5 -1.</_>
        <_>
          18 9 2 5 3.</_></rects>
      <tilted>0</tilted></_>
    <_>
      <rects>
        <_>
          17 8 3 9 -1.</_>
        <_>
          18 8 1 9 3.</_></rects>
      <tilted>0</tilted></_>
    <_>
      <rects>
        <_>
          18 10 1 2 -1.</_>
        <_>
          18 11 1 1 2.</_></rects>
      <tilted>0</tilted></_>
    <_>
      <rects>
        <_>
          18 11 1 2 -1.</_>
        <_>
          18 12 1 1 2.</_></rects>
      <tilted>0</tilted></_>
    <_>
      <rects>
        <_>
          18 11 1 4 -1.</_>
        <_>
          18 13 1 2 2.</_></rects>
      <tilted>0</tilted></_>
    <_>
      <rects>
        <_>
          18 12 1 2 -1.</_>
        <_>
          18 13 1 1 2.</_></rects>
      <tilted>0</tilted></_>
    <_>
      <rects>
        <_>
          18 14 2 4 -1.</_>
        <_>
          18 14 1 2 2.</_>
        <_>
          19 16 1 2 2.</_></rects>
      <tilted>0</tilted></_>
    <_>
      <rects>
        <_>
          18 16 2 2 -1.</_>
        <_>
          18 16 1 1 2.</_>
        <_>
          19 17 1 1 2.</_></rects>
      <tilted>0</tilted></_></features></cascade>
</opencv_storage>
